<?xml version="1.0"?>
<opencv_storage>
<stage3>
  <maxWeakCount>5</maxWeakCount>
  <stageThreshold>-7.7740621566772461e-01</stageThreshold>
  <weakClassifiers>
    <_>
      <internalNodes>
        0 -1 10805 1.9473254680633545e-02</internalNodes>
      <leafValues>
        -7.2614109516143799e-01 7.2078907489776611e-01</leafValues></_>
    <_>
      <internalNodes>
        0 -1 69868 3.2267868518829346e-02</internalNodes>
      <leafValues>
        -7.5743591785430908e-01 6.7638039588928223e-01</leafValues></_>
    <_>
      <internalNodes>
        0 -1 28568 6.4712567254900932e-03</internalNodes>
      <leafValues>
        -6.1068683862686157e-01 6.8117141723632812e-01</leafValues></_>
    <_>
      <internalNodes>
        0 -1 4872 5.6342380121350288e-03</internalNodes>
      <leafValues>
        -4.9888244271278381e-01 7.2443169355392456e-01</leafValues></_>
    <_>
      <internalNodes>
        0 -1 74755 1.0712913353927433e-04</internalNodes>
      <leafValues>
        3.8192376494407654e-01 -9.0701746940612793e-01</leafValues></_></weakClassifiers></stage3>
</opencv_storage>
